svm_type c_svc
kernel_type polynomial
degree 3
gamma 1
coef0 0
nr_class 11
total_sv 11
rho 0 0 -3.88578e-16 -5.55112e-16 -5.11813e-14 -1.07286e-12 -1.032e-10 -2.29361e-10 -3.53772e-10 -3.55839e-10 0 -3.88578e-16 -5.55112e-16 -5.11813e-14 -1.07292e-12 -1.032e-10 -2.29361e-10 -3.53772e-10 -3.55839e-10 -3.33067e-16 -4.996e-16 -5.12368e-14 -1.07292e-12 -1.032e-10 -2.29361e-10 -3.53772e-10 -3.55839e-10 -2.22045e-16 -5.07927e-14 -1.07253e-12 -1.032e-10 -2.2936e-10 -3.53772e-10 -3.55839e-10 -5.06817e-14 -1.07225e-12 -1.03199e-10 -2.2936e-10 -3.53771e-10 -3.55839e-10 -1.02168e-12 -1.03149e-10 -2.2931e-10 -3.53721e-10 -3.55788e-10 -1.02127e-10 -2.28288e-10 -3.52699e-10 -3.54766e-10 -1.26161e-10 -2.50572e-10 -2.52639e-10 -1.24411e-10 -1.26478e-10 -2.06712e-12
label 1 2 4 8 16 32 64 128 191 198 201
nr_sv 1 1 1 1 1 1 1 1 1 1 1
SV
1 1 1 1 1 1 1 1 1 1 1:0.000393 
-1 1 1 1 1 1 1 1 1 1 1:0.000658 
-1 -1 1 1 1 1 1 1 1 1 1:0.001366 
-1 -1 -1 1 1 1 1 1 1 1 1:0.003016 
-1 -1 -1 -1 1 1 1 1 1 1 1:0.003211 
-1 -1 -1 -1 -1 1 1 1 1 1 1:0.00684 
-1 -1 -1 -1 -1 -1 1 1 1 1 1:0.011357 
-1 -1 -1 -1 -1 -1 -1 1 1 1 1:0.02431 
-1 -1 -1 -1 -1 -1 -1 -1 1 1 1:0.027771 
-1 -1 -1 -1 -1 -1 -1 -1 -1 1 1:0.029851 
-1 -1 -1 -1 -1 -1 -1 -1 -1 -1 1:0.02988 
