svm_type c_svc
kernel_type polynomial
degree 3
gamma 1
coef0 0
nr_class 14
total_sv 14
rho 0 0 -6.10623e-16 -6.82787e-15 -5.65659e-14 -7.48235e-12 -1.33302e-11 -3.92792e-11 -3.24144e-10 -1.38803e-10 -5.37411e-11 -5.17754e-11 -1.25119e-10 0 -6.10623e-16 -6.82787e-15 -5.65659e-14 -7.48235e-12 -1.33301e-11 -3.92791e-11 -3.24144e-10 -1.38803e-10 -5.37411e-11 -5.17754e-11 -1.25119e-10 -6.66134e-16 -6.77236e-15 -5.65659e-14 -7.48229e-12 -1.33301e-11 -3.92792e-11 -3.24144e-10 -1.38803e-10 -5.37411e-11 -5.17754e-11 -1.25119e-10 -6.21725e-15 -5.58997e-14 -7.48168e-12 -1.33296e-11 -3.92785e-11 -3.24143e-10 -1.38802e-10 -5.37405e-11 -5.17748e-11 -1.25119e-10 -4.97935e-14 -7.47552e-12 -1.33233e-11 -3.92724e-11 -3.24137e-10 -1.38796e-10 -5.37342e-11 -5.17685e-11 -1.25112e-10 -7.42567e-12 -1.32735e-11 -3.92226e-11 -3.24087e-10 -1.38746e-10 -5.36845e-11 -5.17188e-11 -1.25063e-10 -5.84782e-12 -3.17968e-11 -3.16661e-10 -1.3132e-10 -4.62588e-11 -4.42931e-11 -1.17637e-10 -2.59491e-11 -3.10813e-10 -1.25472e-10 -4.04109e-11 -3.84452e-11 -1.11789e-10 -2.84864e-10 -9.95233e-11 -1.44619e-11 -1.24962e-11 -8.584e-11 1.85341e-10 2.70402e-10 2.72368e-10 1.99024e-10 8.50614e-11 8.70271e-11 1.36834e-11 1.96565e-12 -7.13781e-11 -7.33438e-11
label 1 2 4 8 16 32 64 95 111 119 123 125 126 127
nr_sv 1 1 1 1 1 1 1 1 1 1 1 1 1 1
SV
1 1 1 1 1 1 1 1 1 1 1 1 1 1:0.000447 
-1 1 1 1 1 1 1 1 1 1 1 1 1 1:0.000872 
-1 -1 1 1 1 1 1 1 1 1 1 1 1 1:0.001685 
-1 -1 -1 1 1 1 1 1 1 1 1 1 1 1:0.003292 
-1 -1 -1 -1 1 1 1 1 1 1 1 1 1 1:0.004891 
-1 -1 -1 -1 -1 1 1 1 1 1 1 1 1 1:0.006955 
-1 -1 -1 -1 -1 -1 1 1 1 1 1 1 1 1:0.015698 
-1 -1 -1 -1 -1 -1 -1 1 1 1 1 1 1 1:0.017284 
-1 -1 -1 -1 -1 -1 -1 -1 1 1 1 1 1 1:0.020695 
-1 -1 -1 -1 -1 -1 -1 -1 -1 1 1 1 1 1:0.029419 
-1 -1 -1 -1 -1 -1 -1 -1 -1 -1 1 1 1 1:0.025541 
-1 -1 -1 -1 -1 -1 -1 -1 -1 -1 -1 1 1 1:0.021805 
-1 -1 -1 -1 -1 -1 -1 -1 -1 -1 -1 -1 1 1:0.02167 
-1 -1 -1 -1 -1 -1 -1 -1 -1 -1 -1 -1 -1 1:0.025103 
