svm_type c_svc
kernel_type polynomial
degree 3
gamma 1
coef0 0
nr_class 13
total_sv 13
rho 0 -5.55112e-17 -3.33067e-16 -6.82787e-15 -3.72202e-13 -2.47135e-11 -5.12614e-11 -2.89261e-10 -1.56141e-10 -6.32639e-11 -1.23011e-10 -2.89201e-10 -5.55112e-17 -3.33067e-16 -6.88338e-15 -3.72202e-13 -2.47135e-11 -5.12614e-11 -2.89261e-10 -1.56141e-10 -6.32639e-11 -1.23011e-10 -2.89201e-10 -2.77556e-16 -6.77236e-15 -3.72147e-13 -2.47135e-11 -5.12614e-11 -2.89261e-10 -1.56141e-10 -6.32638e-11 -1.23011e-10 -2.89201e-10 -6.55032e-15 -3.71814e-13 -2.47132e-11 -5.12612e-11 -2.89261e-10 -1.5614e-10 -6.32636e-11 -1.2301e-10 -2.892e-10 -3.65319e-13 -2.47066e-11 -5.12546e-11 -2.89254e-10 -1.56134e-10 -6.32571e-11 -1.23004e-10 -2.89194e-10 -2.43414e-11 -5.08893e-11 -2.88889e-10 -1.55769e-10 -6.28917e-11 -1.22639e-10 -2.88829e-10 -2.65479e-11 -2.64547e-10 -1.31427e-10 -3.85503e-11 -9.82973e-11 -2.64487e-10 -2.37999e-10 -1.04879e-10 -1.20025e-11 -7.17493e-11 -2.37939e-10 1.3312e-10 2.25997e-10 1.6625e-10 6.01741e-14 9.28768e-11 3.31299e-11 -1.3306e-10 -5.9747e-11 -2.25937e-10 -1.6619e-10
label 1 2 4 8 16 32 64 95 102 106 108 109 110
nr_sv 1 1 1 1 1 1 1 1 1 1 1 1 1
SV
1 1 1 1 1 1 1 1 1 1 1 1 1:0.000662 
-1 1 1 1 1 1 1 1 1 1 1 1 1:0.001212 
-1 -1 1 1 1 1 1 1 1 1 1 1 1:0.00232 
-1 -1 -1 1 1 1 1 1 1 1 1 1 1:0.002985 
-1 -1 -1 -1 1 1 1 1 1 1 1 1 1:0.004893 
-1 -1 -1 -1 -1 1 1 1 1 1 1 1 1:0.00952 
-1 -1 -1 -1 -1 -1 1 1 1 1 1 1 1:0.019157 
-1 -1 -1 -1 -1 -1 -1 1 1 1 1 1 1:0.021634 
-1 -1 -1 -1 -1 -1 -1 -1 1 1 1 1 1:0.028866 
-1 -1 -1 -1 -1 -1 -1 -1 -1 1 1 1 1:0.026047 
-1 -1 -1 -1 -1 -1 -1 -1 -1 -1 1 1 1:0.022406 
-1 -1 -1 -1 -1 -1 -1 -1 -1 -1 -1 1 1:0.025032 
-1 -1 -1 -1 -1 -1 -1 -1 -1 -1 -1 -1 1:0.028865 
