svm_type c_svc
kernel_type polynomial
degree 3
gamma 1
coef0 0
nr_class 12
total_sv 12
rho 0 -1.66533e-15 -3.03646e-14 -2.37921e-13 -2.4023e-12 -9.1631e-11 -2.37252e-10 -9.04608e-11 -9.7673e-11 -1.1874e-10 -1.51137e-10 -1.66533e-15 -3.03091e-14 -2.37976e-13 -2.4023e-12 -9.1631e-11 -2.37251e-10 -9.04608e-11 -9.7673e-11 -1.1874e-10 -1.51137e-10 -2.86993e-14 -2.36311e-13 -2.40064e-12 -9.16294e-11 -2.3725e-10 -9.04591e-11 -9.76714e-11 -1.18738e-10 -1.51136e-10 -2.07556e-13 -2.37194e-12 -9.16006e-11 -2.37221e-10 -9.04304e-11 -9.76426e-11 -1.18709e-10 -1.51107e-10 -2.16438e-12 -9.1393e-11 -2.37014e-10 -9.02228e-11 -9.74351e-11 -1.18502e-10 -1.50899e-10 -8.92287e-11 -2.34849e-10 -8.80584e-11 -9.52707e-11 -1.16337e-10 -1.48735e-10 -1.45621e-10 1.17018e-12 -6.04194e-12 -2.71088e-11 -5.95065e-11 1.46791e-10 1.39579e-10 1.18512e-10 8.6114e-11 -7.21223e-12 -2.82789e-11 -6.06767e-11 -2.10667e-11 -5.34645e-11 -3.23978e-11
label 1 2 4 8 16 32 47 55 59 61 62 63
nr_sv 1 1 1 1 1 1 1 1 1 1 1 1
SV
1 1 1 1 1 1 1 1 1 1 1 1:0.00093 
-1 1 1 1 1 1 1 1 1 1 1 1:0.001974 
-1 -1 1 1 1 1 1 1 1 1 1 1:0.003863 
-1 -1 -1 1 1 1 1 1 1 1 1 1:0.00627 
-1 -1 -1 -1 1 1 1 1 1 1 1 1:0.008836 
-1 -1 -1 -1 -1 1 1 1 1 1 1 1:0.01299 
-1 -1 -1 -1 -1 -1 1 1 1 1 1 1:0.023833 
-1 -1 -1 -1 -1 -1 -1 1 1 1 1 1:0.027928 
-1 -1 -1 -1 -1 -1 -1 -1 1 1 1 1:0.023782 
-1 -1 -1 -1 -1 -1 -1 -1 -1 1 1 1:0.024088 
-1 -1 -1 -1 -1 -1 -1 -1 -1 -1 1 1:0.024885 
-1 -1 -1 -1 -1 -1 -1 -1 -1 -1 -1 1:0.025906 
