svm_type c_svc
kernel_type polynomial
degree 3
gamma 1
coef0 0
nr_class 11
total_sv 11
rho 0 0 -5.55112e-17 -4.44089e-16 -5.38458e-15 -4.90163e-13 -9.96603e-11 -1.64035e-10 -2.25718e-10 -2.73459e-10 0 -5.55112e-17 -4.44089e-16 -5.38458e-15 -4.90108e-13 -9.96603e-11 -1.64035e-10 -2.25718e-10 -2.73459e-10 -5.55112e-17 -4.44089e-16 -5.44009e-15 -4.90163e-13 -9.96603e-11 -1.64035e-10 -2.25718e-10 -2.73459e-10 -3.88578e-16 -5.27356e-15 -4.90108e-13 -9.96602e-11 -1.64035e-10 -2.25718e-10 -2.73459e-10 -4.94049e-15 -4.89719e-13 -9.96599e-11 -1.64035e-10 -2.25718e-10 -2.73459e-10 -4.84723e-13 -9.96549e-11 -1.6403e-10 -2.25713e-10 -2.73454e-10 -9.91701e-11 -1.63545e-10 -2.25228e-10 -2.72969e-10 -6.43748e-11 -1.26058e-10 -1.73799e-10 -6.1683e-11 -1.09424e-10 -4.77413e-11
label 1 2 4 8 16 32 64 128 191 206 214
nr_sv 1 1 1 1 1 1 1 1 1 1 1
SV
1 1 1 1 1 1 1 1 1 1 1:0.000418 
-1 1 1 1 1 1 1 1 1 1 1:0.000474 
-1 -1 1 1 1 1 1 1 1 1 1:0.001182 
-1 -1 -1 1 1 1 1 1 1 1 1:0.00219 
-1 -1 -1 -1 1 1 1 1 1 1 1:0.003103 
-1 -1 -1 -1 -1 1 1 1 1 1 1:0.0047 
-1 -1 -1 -1 -1 -1 1 1 1 1 1:0.009967 
-1 -1 -1 -1 -1 -1 -1 1 1 1 1:0.024169 
-1 -1 -1 -1 -1 -1 -1 -1 1 1 1:0.026262 
-1 -1 -1 -1 -1 -1 -1 -1 -1 1 1:0.027697 
-1 -1 -1 -1 -1 -1 -1 -1 -1 -1 1:0.028597 
