svm_type c_svc
kernel_type polynomial
degree 3
gamma 1
coef0 0
nr_class 7
total_sv 7
rho -3.79141e-14 -1.68598e-12 -1.81638e-11 -6.47328e-11 -1.75523e-10 -3.25134e-10 -1.64807e-12 -1.81259e-11 -6.4695e-11 -1.75485e-10 -3.25097e-10 -1.64779e-11 -6.30469e-11 -1.73837e-10 -3.23448e-10 -4.6569e-11 -1.57359e-10 -3.06971e-10 -1.1079e-10 -2.60402e-10 -1.49612e-10
label 1 2 4 8 16 19 20
nr_sv 1 1 1 1 1 1 1
SV
1 1 1 1 1 1 1:0.003993 
-1 1 1 1 1 1 1:0.006562 
-1 -1 1 1 1 1 1:0.012248 
-1 -1 -1 1 1 1 1:0.018199 
-1 -1 -1 -1 1 1 1:0.022492 
-1 -1 -1 -1 -1 1 1:0.02656 
-1 -1 -1 -1 -1 -1 1:0.029434 
