svm_type c_svc
kernel_type polynomial
degree 3
gamma 1
coef0 0
nr_class 8
total_sv 8
rho 0 -3.88578e-16 -6.60583e-15 -5.9508e-14 -4.07285e-13 -2.319e-10 -1.98099e-10 -3.88578e-16 -6.60583e-15 -5.9508e-14 -4.07341e-13 -2.319e-10 -1.98099e-10 -6.21725e-15 -5.90639e-14 -4.06897e-13 -2.31899e-10 -1.98098e-10 -5.28466e-14 -4.00679e-13 -2.31893e-10 -1.98092e-10 -3.47722e-13 -2.3184e-10 -1.98039e-10 -2.31492e-10 -1.97691e-10 3.38008e-11
label 1 2 4 8 16 32 64 95
nr_sv 1 1 1 1 1 1 1 1
SV
1 1 1 1 1 1 1 1:0.000932 
-1 1 1 1 1 1 1 1:0.001375 
-1 -1 1 1 1 1 1 1:0.003072 
-1 -1 -1 1 1 1 1 1:0.004867 
-1 -1 -1 -1 1 1 1 1:0.007014 
-1 -1 -1 -1 -1 1 1 1:0.009664 
-1 -1 -1 -1 -1 -1 1 1:0.027822 
-1 -1 -1 -1 -1 -1 -1 1:0.027101 
