svm_type c_svc
kernel_type polynomial
degree 3
gamma 1
coef0 0
nr_class 7
total_sv 7
rho -4.996e-16 -2.92544e-14 -3.19578e-13 -2.88553e-12 -1.04635e-10 -3.02493e-10 -2.87548e-14 -3.19023e-13 -2.88508e-12 -1.04634e-10 -3.02493e-10 -2.90323e-13 -2.85633e-12 -1.04605e-10 -3.02464e-10 -2.56606e-12 -1.04315e-10 -3.02174e-10 -1.01749e-10 -2.99608e-10 -1.97859e-10
label 1 2 4 8 16 32 47
nr_sv 1 1 1 1 1 1 1
SV
1 1 1 1 1 1 1:0.001978 
-1 1 1 1 1 1 1:0.0032 
-1 -1 1 1 1 1 1:0.006232 
-1 -1 -1 1 1 1 1:0.009281 
-1 -1 -1 -1 1 1 1:0.013393 
-1 -1 -1 -1 -1 1 1:0.024366 
-1 -1 -1 -1 -1 -1 1:0.029082 
